Language model created by QuickLM on Thu Oct 22 08:51:49 EDT 2015
Copyright (c) 1996-2010 Carnegie Mellon University and Alexander I. Rudnicky

The model is in standard ARPA format, designed by Doug Paul while he was at MITRE.

The code that was used to produce this language model is available in Open Source.
Please visit http://www.speech.cs.cmu.edu/tools/ for more information

The (fixed) discount mass is 0.5. The backoffs are computed using the ratio method.
This model based on a corpus of 42 sentences and 79 words

\data\
ngram 1=79
ngram 2=137
ngram 3=107

\1-grams:
-1.0000 </s> -0.3010
-1.0000 <s> -0.2495
-2.6232 A -0.3000
-2.6232 AND -0.3000
-2.6232 AT -0.2553
-2.6232 AY -0.2553
-2.6232 BADROOM -0.2553
-2.6232 BAHIA -0.2553
-2.3222 BATHROOM -0.2553
-2.6232 BE -0.2884
-2.6232 BRAZIL -0.2553
-2.6232 BRAZILIA -0.2553
-2.6232 CANCEL -0.2553
-2.6232 CAPITAL -0.2958
-2.6232 CHRIST -0.3000
-2.6232 CITY -0.3000
-2.6232 DE -0.3000
-2.6232 ELEVATOR -0.2553
-2.6232 FEDERAL -0.2990
-2.6232 FIND -0.2553
-2.6232 FIVE -0.2553
-2.6232 FOLLOW -0.2553
-2.6232 FOUR -0.2553
-2.6232 GERAIS -0.2553
-2.6232 GERMANY -0.2553
-2.6232 GET -0.2553
-2.0212 GO -0.2518
-2.6232 HALL -0.2553
-2.3222 HAVE -0.2874
-2.6232 HOME -0.2553
-2.3222 HOW -0.2990
-2.1461 IN -0.2937
-1.7202 IS -0.2831
-2.6232 IT -0.2553
-2.6232 JANEIRO -0.2553
-2.6232 JOHN -0.2553
-2.6232 JOSEPH -0.2553
-2.6232 JUDE -0.2553
-2.3222 KITCHEN -0.2530
-2.6232 LACERDA -0.3000
-2.6232 LEAGUE -0.2553
-2.6232 LEIPZIG -0.2553
-2.6232 LIVING -0.2990
-2.6232 LOCATED -0.2884
-2.3222 MANY -0.2990
-2.6232 MARY -0.2553
-2.6232 ME -0.2553
-2.6232 MINAS -0.3000
-2.6232 MUCH -0.2927
-2.3222 NAME -0.2958
-1.9243 OF -0.2842
-2.6232 OLYMPICS -0.2553
-2.6232 PLUS -0.2979
-2.6232 REDEEMER -0.2553
-2.6232 RINGS -0.2990
-2.6232 RIO -0.3000
-2.3222 ROBOCUP -0.2969
-2.3222 ROOM -0.2553
-2.6232 SALVADOR -0.2553
-2.6232 SEA -0.2553
-2.6232 SIDES -0.2990
-2.6232 SIXTEEN -0.2553
-2.6232 SPAIN -0.3000
-2.6232 SQUARE -0.2553
-2.1461 STATE -0.2927
-2.6232 SYMBOL -0.2958
-1.5441 THE -0.2852
-2.3222 THIS -0.2969
-2.6232 THOUSAND -0.3000
-2.6232 TIME -0.2927
-2.1461 TO -0.2884
-2.6232 TWENTY -0.2553
-2.1461 TWO -0.2530
-2.6232 UBERLANDIA -0.2553
-2.3222 UNIVERSITY -0.2495
-1.7782 WHAT -0.2884
-2.6232 WHERE -0.3000
-2.6232 WILL -0.3000
-2.6232 WOW -0.3000

\2-grams:
-1.9243 <s> AT 0.0000
-1.9243 <s> AY 0.0000
-1.9243 <s> BADROOM 0.0000
-1.9243 <s> BAHIA 0.0000
-1.9243 <s> BATHROOM 0.0000
-1.9243 <s> BRAZILIA 0.0000
-1.9243 <s> CANCEL 0.0000
-1.9243 <s> FEDERAL 0.0000
-1.9243 <s> FIND 0.0000
-1.9243 <s> FIVE 0.0000
-1.9243 <s> FOLLOW 0.0000
-1.9243 <s> FOUR 0.0000
-1.9243 <s> GERMANY 0.0000
-1.9243 <s> GET 0.0000
-1.3222 <s> GO 0.0000
-1.9243 <s> HOME 0.0000
-1.6232 <s> HOW 0.0000
-1.4472 <s> IN 0.0000
-1.9243 <s> JOHN 0.0000
-1.9243 <s> JOSEPH 0.0000
-1.9243 <s> JUDE 0.0000
-1.9243 <s> KITCHEN -0.1761
-1.9243 <s> LEIPZIG 0.0000
-1.9243 <s> LIVING 0.0000
-1.9243 <s> MARY 0.0000
-1.9243 <s> ME 0.0000
-1.9243 <s> MINAS 0.0000
-1.9243 <s> RIO 0.0000
-1.9243 <s> SALVADOR 0.0000
-1.9243 <s> TWENTY 0.0000
-1.3222 <s> WHAT -0.1549
-1.9243 <s> WHERE 0.0000
-1.9243 <s> WOW 0.0000
-0.3010 A SQUARE 0.0000
-0.3010 AND SIXTEEN 0.0000
-0.3010 AT </s> -0.3010
-0.3010 AY </s> -0.3010
-0.3010 BADROOM </s> -0.3010
-0.3010 BAHIA </s> -0.3010
-0.3010 BATHROOM </s> -0.3010
-0.3010 BE THE -0.2825
-0.3010 BRAZIL </s> -0.3010
-0.3010 BRAZILIA </s> -0.3010
-0.3010 CANCEL </s> -0.3010
-0.3010 CAPITAL OF -0.2553
-0.3010 CHRIST REDEEMER 0.0000
-0.3010 CITY SPAIN 0.0000
-0.3010 DE JANEIRO 0.0000
-0.3010 ELEVATOR </s> -0.3010
-0.3010 FEDERAL UNIVERSITY -0.1761
-0.3010 FIND </s> -0.3010
-0.3010 FIVE </s> -0.3010
-0.3010 FOLLOW </s> -0.3010
-0.3010 FOUR </s> -0.3010
-0.3010 GERAIS </s> -0.3010
-0.3010 GERMANY </s> -0.3010
-0.3010 GET </s> -0.3010
-0.9031 GO </s> -0.3010
-0.4260 GO TO 0.0000
-0.3010 HALL </s> -0.3010
-0.6021 HAVE A 0.0000
-0.6021 HAVE THE -0.2825
-0.3010 HOME </s> -0.3010
-0.3010 HOW MANY 0.0000
-0.3010 IN WHAT -0.1963
-1.2041 IS IT 0.0000
-1.2041 IS LOCATED 0.0000
-0.5051 IS THE -0.1996
-1.2041 IS TWO -0.2218
-0.3010 IT </s> -0.3010
-0.3010 JANEIRO </s> -0.3010
-0.3010 JOHN </s> -0.3010
-0.3010 JOSEPH </s> -0.3010
-0.3010 JUDE </s> -0.3010
-0.6021 KITCHEN </s> -0.3010
-0.6021 KITCHEN ROOM 0.0000
-0.3010 LACERDA ELEVATOR 0.0000
-0.3010 LEAGUE </s> -0.3010
-0.3010 LEIPZIG </s> -0.3010
-0.3010 LIVING ROOM 0.0000
-0.3010 LOCATED THE -0.2825
-0.6021 MANY RINGS 0.0000
-0.6021 MANY SIDES 0.0000
-0.3010 MARY </s> -0.3010
-0.3010 ME </s> -0.3010
-0.3010 MINAS GERAIS 0.0000
-0.3010 MUCH IS -0.2730
-0.3010 NAME OF -0.2041
-1.0000 OF BRAZIL 0.0000
-1.0000 OF THE -0.2825
-0.6990 OF THIS 0.0000
-1.0000 OF UBERLANDIA 0.0000
-0.3010 OLYMPICS </s> -0.3010
-0.3010 PLUS TWO -0.2218
-0.3010 REDEEMER </s> -0.3010
-0.3010 RINGS HAVE -0.1761
-0.3010 RIO DE 0.0000
-0.6021 ROBOCUP LEAGUE 0.0000
-0.6021 ROBOCUP TWO -0.2218
-0.3010 ROOM </s> -0.3010
-0.3010 SALVADOR </s> -0.3010
-0.3010 SEA </s> -0.3010
-0.3010 SIDES HAVE -0.1761
-0.3010 SIXTEEN </s> -0.3010
-0.3010 SPAIN SEA 0.0000
-0.3010 SQUARE </s> -0.3010
-0.3010 STATE IS -0.0969
-0.3010 SYMBOL OF -0.2553
-1.3802 THE BATHROOM 0.0000
-1.3802 THE CAPITAL 0.0000
-1.3802 THE CHRIST 0.0000
-1.3802 THE CITY 0.0000
-1.3802 THE HALL 0.0000
-1.3802 THE KITCHEN -0.1761
-1.3802 THE LACERDA 0.0000
-1.0792 THE NAME 0.0000
-1.3802 THE OLYMPICS 0.0000
-1.3802 THE ROBOCUP -0.1761
-1.3802 THE SYMBOL 0.0000
-0.6021 THIS ROBOCUP -0.1761
-0.6021 THIS UNIVERSITY -0.1761
-0.3010 THOUSAND AND 0.0000
-0.3010 TIME IS -0.2730
-0.3010 TO THE -0.2430
-0.3010 TWENTY </s> -0.3010
-0.7782 TWO </s> -0.3010
-0.7782 TWO PLUS 0.0000
-0.7782 TWO THOUSAND 0.0000
-0.3010 UBERLANDIA </s> -0.3010
-0.6021 UNIVERSITY </s> -0.3010
-0.6021 UNIVERSITY OF -0.2553
-0.6690 WHAT IS -0.1383
-0.6690 WHAT STATE 0.0000
-1.1461 WHAT TIME 0.0000
-0.3010 WHERE WILL 0.0000
-0.3010 WILL BE 0.0000
-0.3010 WOW MUCH 0.0000

\3-grams:
-0.3010 <s> AT </s>
-0.3010 <s> AY </s>
-0.3010 <s> BADROOM </s>
-0.3010 <s> BAHIA </s>
-0.3010 <s> BATHROOM </s>
-0.3010 <s> BRAZILIA </s>
-0.3010 <s> CANCEL </s>
-0.3010 <s> FEDERAL UNIVERSITY
-0.3010 <s> FIND </s>
-0.3010 <s> FIVE </s>
-0.3010 <s> FOLLOW </s>
-0.3010 <s> FOUR </s>
-0.3010 <s> GERMANY </s>
-0.3010 <s> GET </s>
-0.9031 <s> GO </s>
-0.4260 <s> GO TO
-0.3010 <s> HOME </s>
-0.3010 <s> HOW MANY
-0.3010 <s> IN WHAT
-0.3010 <s> JOHN </s>
-0.3010 <s> JOSEPH </s>
-0.3010 <s> JUDE </s>
-0.3010 <s> KITCHEN </s>
-0.3010 <s> LEIPZIG </s>
-0.3010 <s> LIVING ROOM
-0.3010 <s> MARY </s>
-0.3010 <s> ME </s>
-0.3010 <s> MINAS GERAIS
-0.3010 <s> RIO DE
-0.3010 <s> SALVADOR </s>
-0.3010 <s> TWENTY </s>
-0.4260 <s> WHAT IS
-0.9031 <s> WHAT TIME
-0.3010 <s> WHERE WILL
-0.3010 <s> WOW MUCH
-0.3010 A SQUARE </s>
-0.3010 AND SIXTEEN </s>
-0.3010 BE THE ROBOCUP
-0.3010 CAPITAL OF BRAZIL
-0.3010 CHRIST REDEEMER </s>
-0.3010 CITY SPAIN SEA
-0.3010 DE JANEIRO </s>
-0.3010 FEDERAL UNIVERSITY OF
-0.3010 GO TO THE
-0.3010 HAVE A SQUARE
-0.3010 HAVE THE SYMBOL
-0.6021 HOW MANY RINGS
-0.6021 HOW MANY SIDES
-0.3010 IN WHAT STATE
-0.3010 IS IT </s>
-0.3010 IS LOCATED THE
-1.0000 IS THE CAPITAL
-1.0000 IS THE CHRIST
-1.0000 IS THE LACERDA
-0.6990 IS THE NAME
-0.3010 IS TWO PLUS
-0.3010 KITCHEN ROOM </s>
-0.3010 LACERDA ELEVATOR </s>
-0.3010 LIVING ROOM </s>
-0.3010 LOCATED THE CITY
-0.3010 MANY RINGS HAVE
-0.3010 MANY SIDES HAVE
-0.3010 MINAS GERAIS </s>
-0.3010 MUCH IS TWO
-0.3010 NAME OF THIS
-0.3010 OF BRAZIL </s>
-0.3010 OF THE OLYMPICS
-0.6021 OF THIS ROBOCUP
-0.6021 OF THIS UNIVERSITY
-0.3010 OF UBERLANDIA </s>
-0.3010 PLUS TWO </s>
-0.3010 RINGS HAVE THE
-0.3010 RIO DE JANEIRO
-0.3010 ROBOCUP LEAGUE </s>
-0.3010 ROBOCUP TWO THOUSAND
-0.3010 SIDES HAVE A
-0.3010 SPAIN SEA </s>
-0.7782 STATE IS LOCATED
-0.4771 STATE IS THE
-0.3010 SYMBOL OF THE
-0.3010 THE BATHROOM </s>
-0.3010 THE CAPITAL OF
-0.3010 THE CHRIST REDEEMER
-0.3010 THE CITY SPAIN
-0.3010 THE HALL </s>
-0.3010 THE KITCHEN ROOM
-0.3010 THE LACERDA ELEVATOR
-0.3010 THE NAME OF
-0.3010 THE OLYMPICS </s>
-0.3010 THE ROBOCUP TWO
-0.3010 THE SYMBOL OF
-0.3010 THIS ROBOCUP LEAGUE
-0.3010 THIS UNIVERSITY </s>
-0.3010 THOUSAND AND SIXTEEN
-0.3010 TIME IS IT
-0.7782 TO THE BATHROOM
-0.7782 TO THE HALL
-0.7782 TO THE KITCHEN
-0.3010 TWO PLUS TWO
-0.3010 TWO THOUSAND AND
-0.3010 UNIVERSITY OF UBERLANDIA
-0.3010 WHAT IS THE
-0.3010 WHAT STATE IS
-0.3010 WHAT TIME IS
-0.3010 WHERE WILL BE
-0.3010 WILL BE THE
-0.3010 WOW MUCH IS

\end\
