Language model created by QuickLM on Wed Oct 28 20:10:21 EDT 2015
Copyright (c) 1996-2010 Carnegie Mellon University and Alexander I. Rudnicky

The model is in standard ARPA format, designed by Doug Paul while he was at MITRE.

The code that was used to produce this language model is available in Open Source.
Please visit http://www.speech.cs.cmu.edu/tools/ for more information

The (fixed) discount mass is 0.5. The backoffs are computed using the ratio method.
This model based on a corpus of 39 sentences and 51 words

\data\
ngram 1=51
ngram 2=89
ngram 3=51

\1-grams:
-2.4116 16 -0.2299
-0.8206 </s> -0.3010
-0.8206 <s> -0.2279
-2.4116 A -0.2993
-2.4116 AHN -0.2299
-2.4116 AND -0.2993
-2.4116 BE -0.2299
-2.4116 BRAZIL -0.2299
-2.4116 CAPITAL -0.2299
-2.4116 CHRIST -0.2993
-2.4116 CITY -0.2299
-2.4116 DE -0.2993
-2.4116 ELEVATOR -0.2299
-2.4116 ESPANHA -0.2299
-2.4116 FIND -0.2299
-2.4116 FOLLOW -0.2299
-2.4116 GO -0.2299
-2.4116 HAVE -0.2299
-2.4116 HOW -0.2299
-2.4116 IN -0.2299
-2.4116 IS -0.2299
-2.4116 JUDE -0.2299
-2.4116 LACERDA -0.2993
-2.4116 LEAGUE -0.2299
-2.4116 LOCATED -0.2299
-2.4116 MANY -0.2299
-2.4116 MAR -0.2993
-2.4116 MUCH -0.2299
-2.4116 NAME -0.2299
-2.4116 OF -0.2299
-2.4116 OLYMPICS -0.2299
-2.4116 PLUS -0.2960
-2.4116 REDEEMER -0.2299
-2.4116 ROBOCUP -0.2993
-2.4116 SIDES -0.2299
-2.4116 SIXTEEN -0.2299
-2.4116 SPAIN -0.2299
-2.4116 SQUARE -0.2299
-2.4116 SSS -0.2299
-2.4116 STATE -0.2299
-2.4116 SYMBOL -0.2299
-2.4116 THE -0.2299
-2.4116 THOUSAND -0.2993
-2.4116 TS -0.2299
-1.9345 TWO -0.2259
-2.4116 UH -0.2299
-2.4116 UM -0.2299
-2.4116 UNIVERSITY -0.2299
-2.4116 WHAT -0.2299
-2.4116 WHERE -0.2299
-2.4116 WILL -0.2993

\2-grams:
-0.3010 16 </s> -0.3010
-1.8921 <s> 16 0.0000
-1.8921 <s> A 0.0000
-1.8921 <s> AHN 0.0000
-1.8921 <s> BRAZIL 0.0000
-1.8921 <s> CAPITAL 0.0000
-1.8921 <s> CHRIST 0.0000
-1.8921 <s> CITY 0.0000
-1.8921 <s> FIND 0.0000
-1.8921 <s> FOLLOW 0.0000
-1.8921 <s> GO 0.0000
-1.8921 <s> HAVE 0.0000
-1.8921 <s> HOW 0.0000
-1.8921 <s> IN 0.0000
-1.8921 <s> IS 0.0000
-1.8921 <s> JUDE 0.0000
-1.8921 <s> LACERDA 0.0000
-1.8921 <s> LOCATED 0.0000
-1.8921 <s> MANY 0.0000
-1.8921 <s> MAR 0.0000
-1.8921 <s> MUCH 0.0000
-1.8921 <s> NAME 0.0000
-1.8921 <s> OF 0.0000
-1.8921 <s> OLYMPICS 0.0000
-1.8921 <s> ROBOCUP 0.0000
-1.8921 <s> SIDES 0.0000
-1.8921 <s> SPAIN 0.0000
-1.8921 <s> SSS 0.0000
-1.8921 <s> STATE 0.0000
-1.8921 <s> SYMBOL 0.0000
-1.8921 <s> THE 0.0000
-1.8921 <s> TS 0.0000
-1.5911 <s> TWO -0.1249
-1.8921 <s> UH 0.0000
-1.8921 <s> UM 0.0000
-1.8921 <s> UNIVERSITY 0.0000
-1.8921 <s> WHAT 0.0000
-1.8921 <s> WHERE 0.0000
-1.8921 <s> WILL 0.0000
-0.3010 A SQUARE 0.0000
-0.3010 AHN </s> -0.3010
-0.3010 AND SIXTEEN 0.0000
-0.3010 BE </s> -0.3010
-0.3010 BRAZIL </s> -0.3010
-0.3010 CAPITAL </s> -0.3010
-0.3010 CHRIST REDEEMER 0.0000
-0.3010 CITY </s> -0.3010
-0.3010 DE ESPANHA 0.0000
-0.3010 ELEVATOR </s> -0.3010
-0.3010 ESPANHA </s> -0.3010
-0.3010 FIND </s> -0.3010
-0.3010 FOLLOW </s> -0.3010
-0.3010 GO </s> -0.3010
-0.3010 HAVE </s> -0.3010
-0.3010 HOW </s> -0.3010
-0.3010 IN </s> -0.3010
-0.3010 IS </s> -0.3010
-0.3010 JUDE </s> -0.3010
-0.3010 LACERDA ELEVATOR 0.0000
-0.3010 LEAGUE </s> -0.3010
-0.3010 LOCATED </s> -0.3010
-0.3010 MANY </s> -0.3010
-0.3010 MAR DE 0.0000
-0.3010 MUCH </s> -0.3010
-0.3010 NAME </s> -0.3010
-0.3010 OF </s> -0.3010
-0.3010 OLYMPICS </s> -0.3010
-0.3010 PLUS TWO -0.2218
-0.3010 REDEEMER </s> -0.3010
-0.3010 ROBOCUP LEAGUE 0.0000
-0.3010 SIDES </s> -0.3010
-0.3010 SIXTEEN </s> -0.3010
-0.3010 SPAIN </s> -0.3010
-0.3010 SQUARE </s> -0.3010
-0.3010 SSS </s> -0.3010
-0.3010 STATE </s> -0.3010
-0.3010 SYMBOL </s> -0.3010
-0.3010 THE </s> -0.3010
-0.3010 THOUSAND AND 0.0000
-0.3010 TS </s> -0.3010
-0.7782 TWO </s> -0.3010
-0.7782 TWO PLUS 0.0000
-0.7782 TWO THOUSAND 0.0000
-0.3010 UH </s> -0.3010
-0.3010 UM </s> -0.3010
-0.3010 UNIVERSITY </s> -0.3010
-0.3010 WHAT </s> -0.3010
-0.3010 WHERE </s> -0.3010
-0.3010 WILL BE 0.0000

\3-grams:
-0.3010 <s> 16 </s>
-0.3010 <s> A SQUARE
-0.3010 <s> AHN </s>
-0.3010 <s> BRAZIL </s>
-0.3010 <s> CAPITAL </s>
-0.3010 <s> CHRIST REDEEMER
-0.3010 <s> CITY </s>
-0.3010 <s> FIND </s>
-0.3010 <s> FOLLOW </s>
-0.3010 <s> GO </s>
-0.3010 <s> HAVE </s>
-0.3010 <s> HOW </s>
-0.3010 <s> IN </s>
-0.3010 <s> IS </s>
-0.3010 <s> JUDE </s>
-0.3010 <s> LACERDA ELEVATOR
-0.3010 <s> LOCATED </s>
-0.3010 <s> MANY </s>
-0.3010 <s> MAR DE
-0.3010 <s> MUCH </s>
-0.3010 <s> NAME </s>
-0.3010 <s> OF </s>
-0.3010 <s> OLYMPICS </s>
-0.3010 <s> ROBOCUP LEAGUE
-0.3010 <s> SIDES </s>
-0.3010 <s> SPAIN </s>
-0.3010 <s> SSS </s>
-0.3010 <s> STATE </s>
-0.3010 <s> SYMBOL </s>
-0.3010 <s> THE </s>
-0.3010 <s> TS </s>
-0.6021 <s> TWO PLUS
-0.6021 <s> TWO THOUSAND
-0.3010 <s> UH </s>
-0.3010 <s> UM </s>
-0.3010 <s> UNIVERSITY </s>
-0.3010 <s> WHAT </s>
-0.3010 <s> WHERE </s>
-0.3010 <s> WILL BE
-0.3010 A SQUARE </s>
-0.3010 AND SIXTEEN </s>
-0.3010 CHRIST REDEEMER </s>
-0.3010 DE ESPANHA </s>
-0.3010 LACERDA ELEVATOR </s>
-0.3010 MAR DE ESPANHA
-0.3010 PLUS TWO </s>
-0.3010 ROBOCUP LEAGUE </s>
-0.3010 THOUSAND AND SIXTEEN
-0.3010 TWO PLUS TWO
-0.3010 TWO THOUSAND AND
-0.3010 WILL BE </s>

\end\
